9 100
</s> -0.10799 -0.03455 -0.15105 -0.12961 0.00333 -0.58622 0.07778 -0.13721 0.52638 -0.00276 0.32544 -0.16128 0.00710 -0.11141 0.88007 0.52694 -0.01086 -0.27945 -0.35084 -0.51908 0.43145 0.25862 0.86152 0.03478 -0.22772 0.00759 0.25640 -0.01853 -0.12777 -0.00410 -0.25593 -0.28321 -0.88186 0.03539 -0.44938 0.19816 -0.25101 0.14619 -0.05667 0.01915 0.20816 0.02558 0.01691 -0.19213 -0.13834 -0.32838 0.26414 0.14898 0.68808 0.00168 0.11609 -0.68369 -0.35059 0.17591 -0.42222 0.05740 0.04150 0.09907 0.18886 -0.84488 -0.14789 0.15788 0.31575 0.19307 0.52293 -0.25077 0.26472 -0.23248 -0.28440 0.45186 -0.34538 -0.07742 0.26195 0.10257 -0.33185 0.23431 0.03233 0.09342 -0.45372 0.11293 -0.75784 0.04241 0.10946 -0.33350 0.13152 0.22121 0.20066 0.59353 0.03956 0.18250 0.04702 -0.60575 0.82763 -0.03117 0.50259 -0.05197 -0.23697 0.30036 -0.35262 -0.12809
— -0.14028 -0.09320 0.42620 -0.47395 -0.39150 0.02715 -0.35808 -0.24343 -0.01189 -0.38123 0.81646 0.15638 -0.72346 -0.24614 0.11329 0.04584 -0.50178 -0.36077 0.03027 -0.46040 0.23025 0.54964 -0.09043 -0.23588 -0.29804 -0.02310 -0.11186 0.25889 -0.20422 0.20289 -0.37662 0.02931 -0.28813 0.10683 -0.85298 -0.09790 -0.49675 -0.08519 -0.30590 0.04634 -0.17971 -0.28961 -0.74998 -0.06711 0.07618 -0.04575 0.20762 0.11693 0.85993 0.02430 0.01818 0.07062 0.00135 -0.67484 -0.25809 0.00193 0.19162 0.36222 0.30450 -0.14212 0.11132 0.27820 -0.04214 0.13090 1.07475 -0.00891 -0.01853 -0.26260 -0.31121 -0.15628 -0.04329 0.76541 -0.08107 0.22989 -0.46624 -0.27878 -0.05294 0.80948 -0.14507 0.53853 0.16644 -0.25310 -0.92108 -0.45087 0.19922 0.56139 0.53774 -0.24424 0.68086 0.19453 -0.19070 0.20955 0.32288 0.31737 0.52040 -0.88501 0.03050 -0.22761 -0.12527 -0.03772
және 0.13059 -0.27445 -0.10316 0.00130 0.30536 0.17113 0.01315 -0.01594 -0.13362 -0.42316 0.08868 0.39029 -0.14921 -0.30882 -0.00753 -0.18382 -0.16078 -0.12616 -0.43394 -0.67346 0.22702 -0.15736 0.04150 -0.10572 0.08317 0.22793 -0.12334 0.18489 0.09904 -0.03192 -0.08500 0.12685 0.07266 -0.42857 -0.07142 -0.20289 -0.15026 0.55369 -0.06139 0.34332 -0.08293 -0.09272 0.14238 0.12783 -0.42868 -0.19393 -0.20709 0.10839 -0.00842 0.17504 0.24614 -0.39742 0.34981 -0.65385 -0.44226 -0.04779 0.08429 -0.35232 -0.07179 0.03671 -0.07900 -0.05307 -0.14938 0.30320 -0.17875 -0.09481 0.03891 -0.10940 -0.41484 0.19136 -0.06288 0.06290 0.23022 0.33050 -0.39593 -0.02004 0.14269 -0.16040 -0.49213 0.18311 0.08843 -0.13070 -0.16877 0.13039 0.25343 0.28694 -0.03875 0.35826 0.56851 -0.12443 -0.54865 -0.30916 0.08767 -0.33324 0.40121 -0.34596 0.36392 0.11490 -0.11507 -0.24200
мен 0.13477 0.19284 0.16877 -0.14925 0.26054 0.06688 0.07321 -0.23105 0.10262 -0.02252 0.06008 0.15973 -0.02764 -0.78331 -0.14518 0.19505 -0.35352 0.23223 -0.29418 -0.44307 0.14176 -0.14072 -0.10467 0.20259 0.08716 0.36017 -0.21901 0.16706 0.23631 0.19628 -0.12965 0.06999 0.39651 -0.01520 -0.16452 0.12291 0.01222 0.17064 -0.12426 0.17377 -0.10572 -0.40941 0.66687 -0.30634 -0.31430 -0.15930 -0.21716 0.51239 0.47936 0.45633 0.39848 -0.03985 0.35358 -0.74598 -0.06423 -0.28264 0.35903 -0.42775 -0.04732 0.21717 -0.23012 -0.14210 -0.04365 0.12436 -0.00040 0.11118 -0.36511 -0.24368 -0.47689 0.30219 -0.06522 -0.42772 0.49965 0.39917 -0.55181 0.09255 0.20644 -0.16730 -0.19500 -0.05185 0.03262 -0.11323 -0.17627 -0.02261 0.37784 0.28053 0.12967 0.54391 0.01143 -0.01462 -0.18444 -0.06418 0.59719 -0.19344 0.31754 -0.34995 -0.20696 -0.09344 -0.15143 0.09854
бойынша -0.20584 -0.26044 0.26151 -0.21732 0.22403 -0.06704 -0.68506 0.47258 0.08592 -0.19409 0.53107 0.16612 0.20553 -0.19935 -0.05109 0.02555 -0.36116 0.18984 0.07909 -0.52858 -0.14290 -0.13745 0.34584 -0.37156 -0.06751 -0.25169 -0.62423 0.11750 0.25527 -0.11880 -0.13896 -0.16446 0.10126 0.28497 0.16372 0.08424 -0.28770 0.23315 -0.38811 0.03057 -0.95856 0.62549 0.15302 0.34190 -0.59046 0.19266 0.27095 -0.28470 0.13727 -0.40637 -0.10964 -0.68976 0.02892 -0.58368 -1.04032 0.00014 0.52924 -0.07072 0.23853 -0.38632 0.04255 0.23694 -0.23293 -0.06584 0.16288 -0.26774 -0.10935 -0.37066 -0.65952 -0.25517 -0.22679 0.13046 0.16705 0.69972 0.20389 0.26610 -0.36797 -0.19845 -0.09746 0.11019 -0.20750 -0.78023 0.03523 -0.87238 -0.75112 -0.10781 0.31979 -0.35742 0.24141 -0.28255 0.14407 -0.03974 0.95289 -0.92306 0.43760 0.00898 0.54741 -0.15986 0.06813 -0.30171
- 0.39176 -0.25333 0.49112 -0.38365 0.07763 0.12092 0.09701 -0.30446 -0.36697 0.52931 -0.03308 0.02721 -0.01212 -0.27330 0.13069 0.17033 -0.12242 -0.02314 -0.20810 -0.33941 0.20946 0.35733 0.29747 -0.10142 -0.26546 0.03756 -0.01574 0.31714 -0.03087 0.06182 -0.20514 0.11736 -0.05386 -0.01217 0.09472 -0.42091 0.26168 0.01217 -0.49605 0.30795 -0.16290 -0.15037 -0.23723 0.31505 0.27788 -0.07531 -0.21368 0.04649 -0.06661 0.18512 -0.08689 0.09504 0.15570 -0.40425 -0.18177 -0.05749 0.01622 0.14983 -0.31510 0.22926 0.08795 0.07235 -0.06236 0.62936 0.40873 -0.50644 0.30774 0.16780 -0.33502 0.13151 -0.50897 0.32193 -0.11302 0.14119 -0.18330 -0.19531 0.25866 0.34464 -0.45401 0.17166 0.00562 0.09454 -0.37341 -0.42109 0.11473 0.10609 0.25236 0.40836 0.29322 0.13945 0.07468 0.24259 -0.11896 -0.25147 0.10288 -0.08367 0.01101 -0.13301 -0.67243 0.32070
жылы 0.24371 -0.02579 -0.42047 -0.31765 0.36476 0.27334 -0.40309 0.04568 0.23042 0.31851 -0.25873 0.31302 0.09190 0.28743 0.07497 -0.16008 0.21703 0.26508 0.33727 -0.20310 0.29550 -0.28516 0.26013 -0.36371 -0.19536 -0.32941 0.81439 0.11725 0.24789 -0.59619 -0.39403 0.04989 -0.29169 0.55363 -0.60773 0.06346 -0.91722 0.51456 -0.00251 -0.17946 -0.39067 0.28589 -0.46985 -0.20833 -0.48098 -0.30657 -0.55659 0.02764 -0.10264 -0.32874 0.21275 0.08187 0.35901 -0.79448 0.22168 0.38370 0.02967 0.09664 -0.06348 -0.35389 -0.11397 -0.04097 0.08517 0.65043 -0.02458 0.00234 0.39901 0.31701 -0.16921 -0.33531 0.04669 -0.04621 -0.11926 0.14323 0.00035 0.54312 -0.08397 0.11289 -0.51169 0.20939 0.01627 -0.17817 0.31663 0.21068 -0.04571 0.02551 -0.09004 0.24317 0.31304 -0.51529 -0.37585 0.05986 -0.04224 -0.55752 0.23166 -0.20742 0.39627 0.59333 -0.23756 -0.75604
су -0.40769 -0.21383 -0.35881 -0.77873 0.16488 -0.76203 0.00682 0.41894 0.49613 -0.21334 0.16209 0.43053 -0.60794 -0.94966 -0.78018 0.11932 -1.12917 -0.00387 -0.18347 0.02293 0.04652 0.28536 -0.95076 -0.60955 -0.48409 0.40832 -0.90207 0.46583 -1.06371 0.18971 -0.19783 -0.55759 -0.08590 0.07965 -0.38519 -0.05840 -0.70704 -0.38245 -0.12513 -0.05275 -0.06972 0.44158 -0.37193 -0.12210 0.43672 -0.27859 0.45698 -0.56556 0.37554 -0.35920 -0.40053 -0.36276 -0.24427 -0.07119 0.06129 0.18221 -0.55653 -0.35545 -0.17856 -0.48440 0.04939 0.00158 0.41441 -0.93276 -0.00350 -0.04190 -0.11504 -0.64709 -0.64826 -0.28047 0.12898 0.37558 -0.02540 0.78193 0.37974 -0.09158 -0.10304 -0.40283 -0.36137 0.44446 -0.12244 -0.78075 0.22431 -0.70944 -0.27408 -0.24791 0.25890 -0.90080 0.23966 -0.13203 -0.32510 -0.03814 0.42529 0.58374 0.20539 0.46105 -0.07173 -0.46471 -0.10474 0.17928
– 0.23534 -0.34024 0.46795 -0.02936 0.14122 0.28695 -0.10981 -0.22891 -0.16426 0.29261 -0.17585 0.03297 -0.06533 -0.01879 0.15255 -0.01823 -0.19221 0.00995 -0.11669 -0.40511 0.22157 0.37959 -0.11360 0.02707 -0.29974 0.10356 0.26243 0.41454 -0.21197 0.21534 -0.22599 -0.08377 0.19651 0.07514 -0.28242 -0.16497 -0.06033 -0.28712 -0.29905 0.36464 -0.30505 -0.05828 -0.24742 0.17893 0.35552 0.09284 -0.25519 0.43608 0.24785 0.15874 -0.03365 0.15592 0.22092 -0.58518 -0.15841 -0.01412 -0.12704 0.03458 -0.09579 0.28983 -0.12740 0.29678 0.23444 0.76460 0.31133 -0.41693 0.24301 0.04659 -0.37879 -0.02827 -0.44738 0.40488 -0.17982 0.06793 -0.10878 -0.25187 0.39940 0.39471 -0.36081 0.25291 0.02332 0.43917 -0.01336 -0.39552 -0.01781 0.37879 0.63183 0.45415 0.34976 -0.07456 -0.07644 0.15735 -0.13253 -0.39981 0.43491 -0.34571 -0.07422 -0.10252 -0.49666 0.52752
