9 100
</s> -0.06002 -0.16652 -0.46922 0.07741 -0.26223 -0.13811 0.06353 -0.24713 0.19056 -0.35471 0.34001 -0.45829 -0.37536 0.21948 0.48147 0.14038 -0.20498 -0.12382 -0.62486 -0.03625 0.42879 0.32766 1.29677 0.03258 -0.14281 0.00833 0.11131 -0.37836 -0.06990 0.02792 -0.49602 -0.26216 -0.41550 -0.11462 -0.36642 0.08494 -0.10431 0.57407 -0.12747 0.15987 0.04711 0.03991 -0.35678 0.08040 -0.02481 -0.10406 -0.27599 0.49223 0.24161 -0.24125 0.22134 -0.42746 -0.40802 0.55804 -0.31828 -0.02903 0.06891 0.07151 -0.07888 -0.55578 0.19020 0.38129 -0.10903 -0.28497 0.32199 -0.36155 0.16817 0.19501 -0.23625 0.61037 -0.34243 0.25721 -0.26398 -0.22943 0.07369 -0.12784 0.43464 0.19088 -0.23158 0.41522 -0.56649 0.12877 0.07434 -0.07064 0.05100 -0.21756 -0.19546 0.03981 0.16449 -0.39930 -0.08742 -0.67942 0.62675 -0.05594 -0.03090 -0.39977 -0.07869 -0.10785 -0.30432 0.11951
жана -0.16733 -0.25161 0.12063 -0.10019 0.50495 0.15112 -0.10971 -0.12940 -0.12035 0.12111 0.38671 0.02296 0.24491 -0.22344 0.31876 0.05849 -0.11725 -0.00929 -0.31292 -0.25188 0.27533 -0.14794 0.01429 -0.32669 0.01559 0.07597 -0.23566 -0.03900 0.25305 -0.48812 -0.06108 0.13926 0.10128 -0.24547 0.23877 -0.22092 -0.16896 0.39078 -0.16397 0.61942 0.27505 -0.03665 -0.02955 0.23306 -0.06879 -0.35674 -0.20921 0.13337 -0.17679 0.22447 -0.02537 -0.58190 0.21999 -0.24842 -0.02471 0.07047 0.29136 -0.36771 -0.14061 0.03446 -0.12883 0.28449 0.27452 0.45866 0.26003 0.20773 0.21425 0.11249 -0.31158 0.28048 0.18157 -0.06387 0.11970 0.16694 -0.21439 -0.10513 0.28362 -0.05405 -0.31521 -0.13110 0.12920 0.03781 -0.19908 -0.04708 0.12903 -0.00435 0.02212 0.37759 0.34843 -0.03511 -0.60422 -0.06218 0.03322 -0.49023 0.00032 -0.19378 -0.12628 -0.32094 0.12964 0.33470
— -0.27919 -0.09245 -0.06351 0.25597 -0.47810 -0.42507 -0.27040 -0.84860 -0.82688 0.15540 0.11910 -0.59230 -0.82756 -0.09245 0.77067 0.45560 -0.36303 0.69554 -0.95625 0.24760 0.54921 0.62827 0.25542 0.23293 -0.08915 -0.42834 -0.46561 -0.45471 -0.10605 -0.33696 -0.78985 -0.12223 0.05157 0.20411 0.04057 -0.35151 -0.74485 0.10596 -0.16907 -0.15904 -0.29018 -0.26945 -0.59955 0.85900 0.02504 -0.05831 -0.31043 0.57975 -0.00999 0.24057 -0.01292 0.03397 -0.39247 0.37570 -0.53252 -0.27871 -0.15458 0.67938 0.27892 -0.53445 0.53747 -0.11229 -0.33241 -0.82479 0.29614 -0.22501 -0.38876 -0.38360 0.43615 0.17970 0.02972 0.47032 -0.39871 -0.06527 -0.32307 -0.22316 0.00744 0.82798 -0.40492 0.54478 0.48900 0.26714 -0.67995 0.08739 -0.08208 0.30612 -0.20066 -0.27033 0.96531 -0.53905 -0.10403 0.57387 0.24636 0.10192 0.09237 -0.20771 -0.28004 -0.26937 -0.36557 0.21008
- -0.11203 -0.33727 -0.11238 0.37854 0.11606 0.18529 -0.99586 -0.32802 -0.82033 0.03613 -0.15978 -0.27002 -0.00022 -0.31606 0.20245 0.33774 0.32270 -0.37488 -0.33257 -0.20109 0.23210 0.13970 0.75050 0.06645 -0.18623 -0.49805 -0.09293 -0.43102 0.15092 0.05597 -0.32924 0.40594 0.26464 0.20527 -0.51958 -0.69883 -0.47737 -0.05554 -0.16686 0.25473 0.27317 -0.17961 -0.47076 0.77856 -0.06377 -0.33548 0.06801 0.10229 0.08325 -0.21357 -0.34590 -0.38625 0.02721 0.29948 -0.07206 -0.00290 -0.22329 0.43815 0.29102 -0.45371 0.26423 -0.31298 -0.34236 0.04103 0.64320 -0.92473 0.27657 0.00433 0.57923 0.16602 -0.68971 0.78507 -0.44682 0.18780 0.25221 0.32665 0.12474 0.40629 0.24182 0.44019 -0.10894 0.28435 -0.29435 -0.62210 0.02075 0.25063 0.24109 -0.14914 0.74766 -0.14811 -0.05604 -0.18040 0.37060 -0.20815 0.11792 -0.07766 -0.02045 0.27863 -0.68019 0.69954
менен -0.25319 0.10920 -0.14783 -0.32240 -0.04041 0.15296 -0.25006 0.12385 0.09181 0.21400 0.37041 -0.14185 0.27355 -0.28555 -0.13708 0.25022 -0.15771 -0.09997 -0.03849 -0.07022 0.55531 -0.34215 0.05300 -0.32370 0.04146 0.17703 -0.51352 0.41590 0.31575 -0.61378 0.04708 -0.05787 -0.41749 0.00728 -0.27978 -0.14382 -0.03869 0.24618 -0.31053 0.26735 0.10866 0.17986 -0.01097 0.23017 -0.01192 -0.07136 -0.31397 -0.13728 -0.32089 0.25661 -0.06217 -0.40959 -0.19894 -0.00113 0.13579 -0.07004 0.15886 -0.41130 -0.16141 0.10519 -0.03466 0.12345 -0.16099 0.41119 0.04338 0.03786 0.15478 0.13328 -0.54860 0.28699 0.17701 -0.35973 0.15004 0.01470 -0.38932 -0.02540 0.17798 0.20805 0.01152 -0.70231 0.19878 -0.01805 0.09451 -0.28533 0.11154 -0.32788 0.07170 0.40992 -0.08757 -0.46676 -0.34678 0.07061 0.38900 -0.26249 0.23778 0.16624 0.12700 -0.38328 -0.07090 0.36607
– 0.15923 -0.17450 0.11652 0.24604 0.05430 0.17587 0.00871 -0.38532 -0.34473 0.24511 -0.39566 -0.43514 -0.33414 -0.17038 0.43463 0.16719 0.05339 -0.24798 -0.38003 0.05639 -0.03189 0.58241 0.36144 0.02281 0.27043 -0.32892 0.12563 0.49413 0.17983 -0.17973 -0.08606 0.19684 0.06380 -0.17994 -0.05659 -0.38058 -0.06619 -0.37647 -0.21653 0.63295 -0.18087 -0.04913 -0.18498 0.92574 0.16722 0.18249 -0.48915 0.39185 0.13165 0.01419 -0.17125 -0.08467 -0.19811 -0.10943 0.28283 -0.07581 -0.14237 0.04391 -0.23478 0.24583 0.14813 0.25202 -0.17810 0.37900 0.22514 -0.65758 0.23733 -0.52170 -0.28311 -0.13565 -0.40515 0.12636 -0.25459 0.21275 -0.10849 -0.29881 0.34029 0.07758 -0.41912 0.49038 -0.30873 0.29520 -0.34290 -0.83556 0.15805 -0.06771 0.51698 0.18095 0.69310 -0.02218 0.18694 0.00593 0.15833 -0.28032 0.11605 -0.05998 0.34862 0.00734 -0.16754 0.54815
боюнча 0.17968 0.33582 0.37493 0.18949 0.51017 0.23834 -0.12366 -0.12118 0.23355 0.37075 0.15978 0.14180 -0.11056 0.06943 0.16224 0.17940 0.11299 0.35761 -0.38050 -0.28946 0.14961 0.02033 -0.11328 -0.47478 0.01800 0.52393 -0.58721 0.08503 0.59295 -0.10975 -0.27811 0.12129 0.25173 0.13716 -0.16299 0.01301 -0.02490 0.42971 -0.25249 0.17461 -0.37922 0.13145 0.79130 0.56471 -0.57123 0.56357 0.34495 0.21552 0.15315 0.06263 -0.01538 0.25676 -0.25591 -0.38250 -0.34560 0.24090 0.21771 -0.28944 0.60127 -0.49937 -0.10523 0.51102 -0.18123 -0.01202 0.29910 -0.45403 -0.37652 -0.09339 -1.02759 0.26423 -0.33383 -0.44457 -0.33016 0.42897 0.49915 0.39788 0.27091 -0.08220 -0.43723 -0.19515 -0.25593 0.12138 0.13401 -0.31058 -0.30254 0.09547 0.19410 -0.33960 0.09118 -0.27006 -0.25861 0.01017 0.70075 -0.25700 0.29710 -0.08381 -0.11791 0.28731 -0.18685 0.24222
бир -0.45119 0.01781 -0.24869 0.09694 -0.40494 -0.11852 0.06445 -0.01167 -0.08344 0.47941 -0.07704 -0.20592 0.34642 -0.25568 0.07045 -0.50487 0.21259 0.16219 -0.12980 0.12727 0.23838 -0.16534 0.18801 0.35545 0.07256 0.35636 -0.32538 0.00727 0.18779 0.17569 0.23437 -0.31266 -0.14666 -0.40579 0.02303 -0.17409 0.25894 -0.01862 -0.42537 -0.08129 0.16284 -0.29160 -0.31587 0.63364 -0.12618 0.00599 -0.43098 -0.10088 0.36619 0.54836 -0.02470 -0.10454 -0.01268 -0.20613 -0.17155 -0.15818 0.23080 -0.29556 -0.35603 0.32221 -0.12348 0.14031 -0.34194 0.53922 -0.01649 0.09627 0.14293 0.07649 -0.34606 0.09385 -0.21040 0.02674 0.51808 0.60157 0.06206 -0.35653 -0.17635 -0.23662 -0.02037 0.12108 0.01340 0.12193 0.08260 0.06192 0.34787 0.26130 0.27260 -0.28730 0.23772 -0.28492 -0.63638 0.05561 -0.08004 0.12043 -0.07287 0.16133 -0.14403 -0.79225 0.21590 0.27860
суу 0.03970 0.15424 -0.44885 -0.40706 0.42727 -0.75819 -0.14824 1.03261 0.49544 0.63318 0.19577 0.64225 -0.66558 -1.23591 -0.12530 0.21744 -0.83595 0.15685 -0.68672 -0.44289 0.18025 -0.51435 -0.70782 -0.67581 0.07058 1.06795 -0.68754 0.31613 -0.36049 -0.34069 -0.25096 -0.43853 -0.57596 -0.63857 0.01439 0.32480 -0.08917 -0.49714 -0.44229 -0.26688 0.20711 -0.33358 -0.35543 0.05738 -0.79865 -0.58601 0.04866 -0.74186 0.61323 -0.20752 -0.33265 -0.17774 -0.63451 0.06521 0.07382 -0.02917 -0.58448 -0.12655 -0.27729 -0.28449 0.27544 0.18697 -0.02448 -0.81032 0.08352 -0.45925 0.14519 -0.42542 -0.52386 0.09883 0.38809 0.19147 -0.03908 0.68498 0.60187 0.45337 -0.00733 -0.52331 -0.43470 0.46867 0.16008 0.20646 0.37106 -0.34921 -0.00364 -0.14204 0.56656 -0.81891 0.56895 -0.54021 -0.16832 -0.35583 -0.11163 0.04912 -0.01019 0.16155 0.17868 -0.24252 0.24814 -0.47906
